{
  "layer2": {
    "weights": [
      [
        0.2851324253527634,
        2.2369285107951282,
        2.033131983384386,
        -0.5498358194909749,
        1.2157895393207345,
        -1.2904333527245861,
        1.2353342881819893,
        1.2885031287801705,
        -0.7704294228668367,
        0.7481617802248179,
        0.17549192116664186,
        0.8670392831376246,
        0.5007298713164409,
        3.1863923052693086,
        -0.38463441490100025,
        0.6993909012077011,
        -0.39249940900962577,
        0.3300484360686191,
        0.1841996936475494,
        0.1268792308262171,
        0.24029586051004959,
        -0.20171470297992072,
        -1.4686883451297474,
        -0.03708403060323917,
        1.7758132639921467,
        -0.08283177323309038,
        1.2647712161925813,
        1.6992768098471869,
        2.6851120645912556,
        1.5112842264136859,
        -0.21004765170906686,
        1.3821077815535303,
        1.382047262154434,
        0.27053078445586737,
        0.3145948146399482,
        1.2955467747971532,
        0.03257261709928261,
        0.700122254945301,
        -0.05500122965265841,
        1.3238843996864327,
        0.3223409279400786,
        -1.6146576817297775,
        2.0400516588377084,
        1.4240197598636175,
        -2.270046526431373,
        1.3500905085458639,
        -0.3106748495606576,
        0.39704759058538514,
        0.42284401727749993,
        0.2502594342821688,
        0.19846783777257876,
        1.028736120725777,
        -0.03213673950223972,
        1.6391526071682525,
        -0.8722748385685792,
        1.4108750193315418,
        1.4619547152904844,
        0.06764273253988279,
        0.6362747136895566,
        0.9460156716373029,
        0.2614558944769622,
        0.8155716119647851,
        2.018066181229293,
        0.20373916718487756,
        2.1426131440299714,
        -0.2508523720042378,
        1.3087926316269398,
        2.007643972811177,
        2.7128174937362655,
        0.5545956238655936,
        2.0097861319914374,
        0.5157442375189354,
        1.5078919685762477,
        -0.651227866463649,
        1.34660826291178,
        -0.012676521829788375,
        2.6191438965054177,
        1.6309140142236382,
        -0.3391602905294665,
        1.261926960464189,
        0.6982303419304272,
        0.5024619908338949,
        2.3241166298921723,
        0.45060583753933886,
        0.057304467496557376,
        0.09956840848395737,
        1.4074521695354123,
        0.29724888083714557,
        1.0309561109082992,
        2.074928114727238,
        -1.7948712887261171,
        0.9558008987110422,
        -0.8370452090358507,
        2.4008942801950437,
        -0.2483037235489528,
        2.2980414816735877,
        -0.23238347798189424,
        1.3400723698360026,
        0.8791575676007006,
        0.032325214390116486,
        -0.11634120482945526,
        -1.1263145733686681,
        -1.108569006306167,
        -1.22457984191138,
        2.285175681623937,
        0.9879865459641215,
        -0.29347987797546715,
        0.6035156834221052,
        1.8187062475619793,
        -0.5162473119687068,
        -1.175709327807276,
        -0.724088231664805,
        0.3916992116023088,
        1.3758683582208047,
        0.1712540020838914,
        1.8746000097464015,
        1.439314407925014,
        1.1741054513747005,
        1.079395012947197,
        0.5648384540324463,
        0.020376694520957975,
        0.6250731860334575,
        0.8945900954605941,
        -0.7514673667006431,
        -0.014760708666052365,
        0.01907752707040095,
        2.2181236788223626,
        1.1682518285669037,
        0.6924795757257958,
        -2.168053329842794,
        -0.1395532414830703,
        2.288533961972787,
        1.3114164983871839,
        0.042061932215797015,
        0.47673508878758764,
        1.7747912649403321,
        -0.6112845343874533,
        -0.7655658166103034,
        0.5129983323167991,
        -0.32182917517418275,
        -0.03982508178296784,
        0.38693043105903785,
        0.8564118572425254,
        1.0269653991684613,
        -0.0810069132412436,
        2.1721772547175986,
        -0.1788928959702622,
        -0.38553804410246884,
        0.8387239153982167,
        1.3244945881104182,
        0.5388098348230572,
        0.46229204506704763,
        0.8759513814584137,
        0.27544947667020553,
        -0.11124338639537862,
        -0.9351182412996231,
        0.14739743415399592,
        1.639834858323089,
        1.3300492350912985,
        0.38118564149801876,
        -0.49066918728654196,
        0.8364982634646185,
        1.2304019534342174,
        -0.6420726093571869,
        -0.9948447149327448,
        1.313273611260077,
        1.2482963945631345,
        0.09758137250628746,
        0.5027426365956899,
        -0.2447426349691349,
        -0.13985939705070077,
        1.4455647201583743,
        2.772984163852242,
        -0.2511286331133399,
        -0.19322783505292712,
        1.830415156507111,
        0.6199770954483959,
        -0.7276761189536738,
        -0.35192653137682794,
        2.5282834335398743,
        0.6497907409726416,
        1.0555597943198898,
        0.8501119697785224,
        -0.23888443167540924,
        -0.8580488719329149,
        0.0385736148893534,
        0.6222959530381951,
        0.983156502661011,
        1.8247317455290706,
        -0.2582385701314368,
        0.9515985011192318,
        0.2745358904139486,
        1.6423326152990982,
        1.261597821063284,
        0.3555044603833914,
        1.377144551166198,
        -0.1747752386925659,
        1.5891004855377242,
        1.131373668909399,
        1.234218940789885,
        2.423817227478362,
        0.09214180152065404,
        0.6289715304600654,
        -0.7028770374056754,
        0.8665095508937677,
        -0.7379872834695134,
        -0.07319097258768109,
        1.503309656376308,
        0.3633415423278732,
        1.9572012576540831,
        0.4183577316069308,
        -0.6474104416448065,
        0.7562708577134674,
        1.064630219550217,
        0.174989827896524,
        -1.7374060123370978,
        -0.8701810599716708,
        0.8834478519374502,
        2.23557074237138,
        1.8342622547017864,
        1.2134826740844522,
        1.8003389375730645,
        0.26297957822713797,
        1.5510904519672382,
        0.022618049132332067,
        2.4191413921665506,
        -0.9698197943778797,
        -0.27265056067539184,
        1.0100371337774663,
        1.1086215452293702,
        -0.868464683754651,
        1.1178413850441353,
        -0.2706143273227265,
        1.6165590837851687,
        0.4569480429225166,
        0.5777301961705023,
        0.300688664060702,
        -0.3909068553478877,
        2.18926638433374,
        1.3895397398973295,
        1.2644017156473113,
        1.0133951970022945,
        1.5116720237255257,
        -2.2385852819775867,
        0.19737999230621145,
        1.0596144336718374,
        1.7381288512554633,
        1.472411448831802,
        0.384802335985985,
        0.3496588896438623,
        0.34814103259885165,
        0.843446360381602,
        -0.5201512293267425,
        0.44877492027771415,
        -0.4670142936755174,
        0.30095867485828853,
        2.093263642234925,
        0.7519481861396282,
        0.19655675774612108,
        0.9823993427245274,
        1.4628900082031093,
        0.06071519716775503,
        3.4457015078108237,
        3.494390292171359,
        1.7454424204460366,
        1.7412723931168466,
        -1.2501710969042805,
        0.32303620347072665,
        0.9280932827600248,
        0.8019196239005457,
        1.7752218239017332,
        1.1871218980673788,
        -2.161715202865114,
        1.1305063981559893,
        0.994078969178467,
        0.9441990781669911,
        -0.1527055449176456,
        0.6669430998855725,
        1.7290490712667255,
        -1.568358248890769,
        0.8767555644893275,
        2.2542025167100723,
        2.0972246526840186,
        1.2414234391440322,
        0.8443310216478295,
        -0.08251340577672123,
        -0.888242012658079,
        -0.0370271039492589,
        2.4931971298957007,
        1.3759091571355682,
        -0.8863613164066337,
        -1.1933109812472182,
        -0.4903539881395603,
        -0.1914781863964809,
        0.5818554654971907,
        0.737325885250434,
        -0.9092860198173942,
        2.2418900526197834,
        1.2833853777733109,
        1.5216244994445394,
        0.3320801809727611,
        0.688201664705085,
        -0.04375432650463873,
        1.5063255459874205,
        2.8500121700287497,
        0.9352140885113687,
        1.0268069151033157,
        -1.3714334937729655,
        0.09637302982058893,
        -1.1166810365146473,
        -0.17484731817768911,
        -1.1373155178882535,
        0.7427844050017094,
        -0.25714285318985397,
        -0.19054489519063128,
        0.9320325917800698,
        0.6596660248951693,
        -0.4794443043177571,
        1.6089086909539292,
        0.6226522791192675,
        -1.7224403138384103,
        2.0989032509618046,
        0.21104100649916513,
        0.7901986523779894,
        1.3290469503726,
        -0.5992750049416169,
        1.244493385389019,
        1.991245994518629,
        1.2116181587746007,
        0.752064281710073,
        1.8346289308311636,
        -1.1329212759023746,
        -0.0708781156386154,
        0.3642596117248192,
        -0.15503849850432677,
        1.147101437584302,
        -0.7719681903050004,
        1.536207830648392,
        -0.7148939782748649,
        0.3418055047079819,
        0.37630363360735214,
        0.895775472238604,
        -1.037543464634573,
        0.4518760979128938,
        0.8428490616839399,
        1.1186532317497706,
        -0.2547475441655719,
        -0.31027609599034134,
        0.8769087153137758,
        2.2146753543706788,
        1.0216951910339453,
        1.858498541463706,
        -0.890342875035316,
        1.0289671442803925,
        1.1030140030172824,
        1.665262763259469,
        -0.18682175064106793,
        -0.04394651238377267,
        1.0501903458996351,
        0.7434481980523995,
        1.6026121245775136,
        1.4878526177065547,
        0.16298676874138274,
        0.4738437426617882,
        -0.7538556327767343,
        -0.7430094668696978,
        -0.13577126486576857,
        0.8735705664590778,
        2.142455061263044,
        0.2115234653588361,
        -0.4154379464062513,
        0.05774624895658609,
        0.8518012256296794,
        0.3684184875313207,
        0.502864366063103,
        0.7327914690506202,
        1.098609599357229,
        1.3487641994966597,
        0.10578035304673777,
        -0.36748569693700717,
        0.42958069844023267,
        1.8274967674843092,
        0.7789230345839244,
        -0.17693623064583092,
        0.8696143228535134,
        1.5982099550347593,
        -0.09394814262510792,
        1.8036505637897176,
        0.46435186218014923,
        1.0845976243067594,
        0.2989094580140291,
        0.08063654825506522,
        -0.12579175362744005,
        0.17208748974321114,
        -0.2602023926051992,
        -0.5155776831989161,
        -0.9871809676762413,
        -0.09572757461338305,
        -1.7953115718015844,
        0.6855873260607876,
        0.34062457554063824,
        1.1620614124108488,
        1.304553010662044,
        -0.6417557144225632,
        1.472348470994908,
        2.0798161098734442,
        0.23052468760644634,
        2.779693872584865,
        -1.196998789009855,
        1.1468546943805347,
        0.41903851066182923,
        1.8477815018071517,
        -0.6785081385052425,
        0.8936152651286311,
        -0.7583640457648517,
        0.7452206266530175,
        0.7926227046206187,
        -1.4396095602783774,
        0.8689986622895105,
        1.6824907435755034,
        0.34322803943494,
        0.5538201301367671,
        1.1822584901437236,
        0.925733182444259,
        1.6121318187404123,
        0.6353997708863706,
        0.4710781832507683,
        1.0985634587022672,
        1.302065589853799,
        1.0589023066295011,
        -0.5682439900146603,
        0.8466250730227867,
        0.8051309564132445,
        -0.2815082312925127,
        1.0395670758542754,
        0.7946938515116331,
        1.1200065272974213,
        1.3034016008274347,
        1.254773506055048,
        1.2843220112202294,
        0.20357748049420932,
        2.2503927694097325,
        -0.517050439203772,
        -0.8157780000278214,
        1.139890621886063,
        1.5301404177156768,
        -0.29399461174279706,
        -1.0987677829561686,
        -0.5263776403454634,
        0.736038536959116,
        1.012091518809249,
        1.2104996425505294,
        -1.7282126744187052,
        0.2523788520139152,
        1.0428517868471265,
        0.5951143903519751,
        0.33461504448914575,
        1.5173057272045212,
        1.2293326193193035,
        1.6592216906581791,
        1.5649020523721995,
        -0.3146574087529165,
        0.13892629737016032,
        2.1375378795802877,
        -0.8295344065462364,
        1.9355483005384453,
        1.5049586282497054,
        -0.7946656309705167,
        -0.06278230081635655,
        2.0095641925468617,
        0.3508558462697206,
        -0.5251005307477155,
        -0.39647462247963217,
        0.993391819379208,
        0.0866423935748254,
        1.8209489617022223,
        -0.7521295684440881,
        1.729200216805073,
        0.384614215664009,
        -0.6258672203054119,
        0.10170301712748508,
        1.3776318035992485,
        0.7043678269790937,
        0.6699220043507015,
        -1.049067899431669,
        -0.026666994829723175,
        1.4624063777817393,
        -0.31986344558089674,
        1.7389938411718857,
        1.7411570817657949,
        -0.961976881621736,
        -0.3683176563179592,
        0.6004292800167719,
        1.1938118475913353,
        0.15016262267211206,
        -0.4180651867830568,
        2.523430248393107,
        0.16373147549236616,
        0.9980536100140773,
        0.49383420139584605,
        -0.47534120429722615,
        0.43211293104595216,
        0.31204176447148474,
        0.04795631977446535,
        -0.025113375121744438,
        -1.1979348630242619,
        0.10356373598338386,
        -1.3050118591852953,
        2.323277626536394,
        -0.3243781226975718,
        0.08691086784946633,
        -0.4536549849328134
      ],
      [
        -0.020494095683099428,
        -0.10779300854572704,
        0.5673775660759317,
        1.2897270401507828,
        1.6066911355153495,
        1.9950983001112306,
        1.5092672282139097,
        -0.2020325070480195,
        2.700849700580449,
        -0.3172128198537553,
        1.7726082489775257,
        2.2771545568013765,
        -0.6834242686842543,
        1.7979653030564058,
        2.136430747707483,
        2.1824972888990284,
        0.47766263799710046,
        -0.5128411894590509,
        3.7501974955242896,
        2.181885734744641,
        2.407546874400743,
        0.903608671418577,
        0.5400930048696149,
        -0.11103980744097375,
        2.910672403184941,
        1.4220900844569544,
        1.202550013062658,
        1.5796192682792471,
        2.2756597849901703,
        0.39005855274459694,
        0.7249294336113913,
        0.6959846099589055,
        1.0369973285593868,
        0.703976250118304,
        1.041320572675728,
        0.4341010501325879,
        0.9982113964110307,
        0.5136373440088724,
        1.8551813078576451,
        0.15835552852666407,
        1.3785165675747426,
        1.2679321303494113,
        0.6806716846356669,
        1.405512692961919,
        1.1159272300382654,
        1.0179483689623328,
        0.1348676676238157,
        1.1835665732853524,
        -2.597417010909036,
        -0.08196760352090116,
        1.8207716656938668,
        1.790789671975563,
        1.6911359414715363,
        -0.80644596102551,
        0.5028971398849811,
        -1.0484232883604598,
        1.6053324891148433,
        1.3289981039431957,
        -0.6499687688091921,
        0.8196332041864022,
        1.260398180211558,
        1.4854664352092808,
        1.9819098591081041,
        -1.0173526616416144,
        0.2970097620842704,
        -0.2354923259334542,
        1.9067996682239827,
        1.4989684190858497,
        1.3725966311331488,
        1.4426516892682377,
        1.8540555878867488,
        1.0066845822167583,
        0.4870254844886825,
        -0.38887909035940077,
        0.9662122909218628,
        0.5027252882765041,
        0.06907314547804044,
        2.3873064614456525,
        0.06047373183260048,
        -0.7592521644723526,
        0.09602332764101962,
        0.6424105630646977,
        0.8634187725370427,
        0.472726759126234,
        1.8108052604940208,
        1.4094016110169079,
        0.4145356441063854,
        -0.24056310541220144,
        0.8727310267564486,
        0.35621505090517885,
        -0.16416872724361736,
        0.027519782025652112,
        -1.3432243435078786,
        0.17508585034798557,
        0.4648494341681277,
        0.414421311875007,
        1.8506388896646309,
        0.9190975864574279,
        -0.27107850595925037,
        -0.024544545595185124,
        2.336164006404972,
        0.46346703862513644,
        0.9217208521812942,
        -0.2469167169301722,
        0.35154669028074575,
        3.499056452940476,
        -0.3841636467496616,
        0.6594037943287645,
        1.8581841885190475,
        2.2100499428920695,
        2.4342668682455195,
        2.3948453823376967,
        1.1780922664191018,
        -0.7442725785624761,
        1.4432615192604383,
        0.8085587428154338,
        1.3126453390712154,
        3.4356186339898502,
        -1.4127621822168195,
        1.1467303452774953,
        0.9243429624054272,
        0.17655401791105968,
        0.28277563552561874,
        1.8222985441455353,
        0.13689228072471243,
        2.320129913216283,
        1.7965562526878316,
        0.5517046819379601,
        1.2896560096709675,
        2.0965643500355626,
        2.037531368624833,
        1.8439989590757717,
        1.1221472184626475,
        1.7186284893676045,
        0.661748962741276,
        2.1557379423974434,
        2.4490634779965887,
        0.8484761322453879,
        0.44096604895585306,
        2.1527176906689176,
        0.991311070450995,
        2.039289819631266,
        0.7048490884433708,
        -0.21395856915065842,
        0.9823860943356088,
        1.3720022858802665,
        0.8638311900049592,
        1.9303771362728863,
        -0.43088325017753987,
        0.7747992961025792,
        -3.1674725005079982,
        1.1526319644967908,
        -0.17107179878361872,
        3.0413238132626925,
        1.2710144605538525,
        0.99201271703501,
        2.3247720849080395,
        -0.02216500481688574,
        1.3596126202692402,
        3.794362177869249,
        2.278919305374997,
        1.2791052106955085,
        1.6474729861433512,
        0.9495777341323627,
        0.71407180854614,
        -0.11417209339025791,
        0.8659278492096557,
        0.9317888115917509,
        0.45463947332665183,
        0.8619117902794581,
        2.182168541428469,
        -0.43852073889171334,
        1.8364154123096326,
        1.7558755994813058,
        0.30071632974469903,
        1.356403892906986,
        1.446970281247456,
        2.0149046986783268,
        -0.9190665688582921,
        -0.1830645023680812,
        0.6975159859072317,
        0.6947601385129232,
        0.9343576400475954,
        0.41254401856770734,
        1.0577786139223524,
        1.0254722209305647,
        1.8580785469367593,
        0.7269115343422771,
        0.42763735791772367,
        0.4988668258051922,
        -0.48900224145316756,
        -0.4061805725453011,
        2.182743860599569,
        0.7611212574541223,
        1.1946844059519095,
        -1.1651854564065076,
        2.0212352187735982,
        0.4458464132915951,
        1.3358481962274587,
        0.6704506899080711,
        0.04568717175307287,
        0.4222803856037091,
        0.04497718456594253,
        -0.20469419844004472,
        -0.10676636921429705,
        1.6208408530080218,
        1.2056160447876212,
        1.0857451626876649,
        -0.4755121101908723,
        1.0814829350722457,
        0.7192481502334772,
        0.9511081677415009,
        0.308536800129052,
        1.119511112150898,
        2.161675181046586,
        -0.02856907775832071,
        1.193239302743514,
        1.2465072782745539,
        1.0034403823221951,
        0.30739884088251074,
        1.92463470511766,
        0.9651701768956166,
        0.5710870435975866,
        0.655775925500502,
        -0.9478682273658238,
        0.48521507826412685,
        0.6279197250701254,
        2.4418153539870695,
        -0.24182684796807846,
        -0.46074466623562954,
        0.8001016421174884,
        -0.5427856142049182,
        -0.08945385582505305,
        0.9197119552240013,
        0.9841825584965683,
        1.5823493045485097,
        0.11604957322508258,
        0.5318251519704316,
        0.8838247108461151,
        1.3577831860356835,
        0.25015015100764565,
        2.1587746124490104,
        2.345097860549713,
        1.6799377364973085,
        1.3397624179261458,
        1.2963902274302397,
        0.4463488210432715,
        -0.8969295962664409,
        1.2523189274639397,
        0.9340749459287482,
        1.4896894973005002,
        0.09809561474156703,
        0.15363472216811452,
        1.0743581578135255,
        0.8766178658478309,
        1.3194691302405435,
        -0.5917782178538621,
        1.3511039626328327,
        2.6293676181959333,
        1.5800123833936215,
        0.8537639217241356,
        1.4392410509898952,
        0.9803237674228674,
        0.8052744326722562,
        2.140244461319786,
        0.9805804663853565,
        0.30022588591271443,
        0.46931060920264395,
        1.26162531220259,
        0.5206778427217695,
        0.1552179338796869,
        0.09413391581557984,
        -0.04120395846131002,
        1.691222331399778,
        -0.47074409781741816,
        1.41698741915763,
        0.9825737576180839,
        2.0287464172582528,
        -0.6501342279683414,
        1.3465168992072662,
        2.8020041513576275,
        2.95176638529408,
        1.8484336248340203,
        -0.21263944996760692,
        1.5366143553655474,
        1.0589640013122588,
        0.06010151535836679,
        0.08853690270427594,
        1.057300658860178,
        1.0128098148491858,
        0.7416644931628534,
        1.4360222036100156,
        0.40000304712774065,
        3.27473372622006,
        0.892488918514812,
        2.263806897594867,
        1.485534939514864,
        0.6526054851021048,
        0.2260519555162281,
        -0.03854611877981666,
        1.2539900916030398,
        -0.22043129147036739,
        1.1651880020388425,
        1.0377974911278884,
        3.3076470944113745,
        0.13669869363390902,
        2.588637542646771,
        1.457569929974854,
        1.3883172781172721,
        0.9384239474384827,
        0.6431364320360868,
        1.528560748713893,
        2.1504719993332313,
        0.7073133566063731,
        -0.4848592711356498,
        2.7726189836705646,
        3.3887291035398293,
        1.574007818439638,
        2.6662962169035143,
        2.472145257595869,
        2.9389821983264546,
        1.363876384334184,
        -0.7820986919291503,
        -0.7724177230237469,
        0.3440505314176833,
        1.6666788051544008,
        0.8648283901812747,
        1.5824789781587136,
        1.3998860570436737,
        0.8350112664451285,
        2.5560601038512667,
        -0.06417574195397946,
        0.3693439977011574,
        2.078091935064738,
        0.8992540799776291,
        -0.056441002642901236,
        2.5082391592456235,
        1.2063064841569133,
        1.1545267204466811,
        0.6368266226945638,
        2.499707204653728,
        1.2249545530669312,
        -0.26235291791174936,
        0.27723270242024517,
        0.775709007762961,
        1.053280593128533,
        2.510970444348689,
        1.7338217242594158,
        0.687531733581842,
        0.9214700803550567,
        0.8549162543156178,
        0.7809144653894223,
        1.7567928342851566,
        2.7179094484702806,
        -0.1307046239713418,
        1.6332456259321095,
        1.119645399936266,
        0.2907453428259949,
        1.9262593183268715,
        1.5232212697453815,
        1.3257227878406375,
        1.4884276057520898,
        1.433325628795892,
        1.4632534394079098,
        0.5594829393104594,
        1.7511470373683715,
        2.1474887458518226,
        0.9429968519972857,
        0.8875129577661603,
        1.316730574803623,
        0.7288282780923715,
        0.645267284264982,
        1.8886240581218758,
        1.4110066145263187,
        0.007024169741395187,
        -0.6430402565271666,
        0.8728800387275789,
        2.540654726421996,
        0.8857271058447763,
        1.1527074995429665,
        0.8185295820037922,
        0.9309074484043031,
        -1.095743495533369,
        1.7156200238170896,
        0.06883070007699188,
        1.0532231945776842,
        1.1923063507016907,
        -0.24534752961997025,
        0.10761587628705072,
        0.6669577826781092,
        1.915613215500936,
        0.44391754545417944,
        2.5220706155652226,
        0.9854756675527315,
        2.6419572131682174,
        0.35655704594494825,
        1.905213461870177,
        0.01808421421959497,
        0.19728749502425252,
        1.5662073799183054,
        1.3991115268554388,
        0.35827958985797664,
        0.808589900741073,
        1.051309446418112,
        2.0883544052002883,
        1.6315179917522271,
        -0.3735650871319988,
        1.4290651521760118,
        2.224991667411826,
        2.386515495193985,
        0.6419862836690216,
        0.6022884128934469,
        1.9255447780413322,
        -0.6569991811257595,
        1.2437772736364439,
        1.0512994229173387,
        0.2449646263486544,
        0.8852712178210994,
        0.13807393667164863,
        -0.4235303815460389,
        0.6060401704281386,
        1.2024341346484935,
        2.147985228065989,
        0.8452679760438119,
        1.6597109813214588,
        1.9792986270353123,
        1.4438752890031827,
        3.808263073609662,
        1.93543235977894,
        2.94391672073067,
        1.1084031058424286,
        1.0366269821850294,
        1.8073483011692,
        1.140373685404653,
        1.2214742325350754,
        0.7645597577775304,
        0.9913666480750646,
        1.738961130156616,
        -0.01259589591333604,
        3.7726370498690227,
        0.08213517119153546,
        -0.03711006775237173,
        0.7179454811513223,
        2.3662570931522953,
        1.7533656897423773,
        0.24800597988671907,
        1.152318491522339,
        2.72089807041248,
        0.7392599315685501,
        0.7711344593048969,
        0.6635874002521034,
        1.404242700148529,
        1.2609193723517977,
        1.1004571066929807,
        0.869382738220002,
        0.08422974088673407,
        0.27934349948930665,
        0.4985724608436865,
        0.778693693619383,
        0.7077438309733993,
        1.2833957862637182,
        1.559743508402209,
        -0.11466412787152325,
        1.5286079302113276,
        -0.11083235605676589,
        2.100226819586956,
        0.10287680806199462,
        -0.6767905494818199,
        0.6828712895699145,
        1.7910408915993599,
        0.6646753262359921,
        -0.11114760579692651,
        0.9848742661909339,
        0.7408647411761901,
        2.150241682618007,
        -0.3051925442338665,
        2.478493469227148,
        1.9725441695895487,
        0.28411941291050175,
        1.0596088389314526,
        2.5553854272384346,
        1.230320866697003,
        1.1583445552787262,
        0.880730588623707,
        0.13184995261241778,
        2.393316258806298,
        0.33632578764324433,
        2.30485530554953,
        1.0182626302849114,
        0.8868705179236988,
        2.506026169450142,
        1.4612998460498352,
        1.5573561483013296,
        1.1046315316622652,
        0.7212360536203858,
        1.7226779585996552,
        -0.5806505716326748,
        1.4953418000674508,
        0.7699558977919817,
        1.7254197150730135,
        1.874880658215597,
        -0.47431043206424367,
        1.7447022457319978,
        1.3894545480644271,
        2.3624621071968916,
        -0.31093942897818677,
        0.7861552643191924,
        1.8034331413554683,
        -0.37609969604574073,
        1.3519533900159724,
        1.9402704856674309,
        0.9337062070098413
      ],
      [
        0.0019898252689289323,
        0.0019898252689289323,
        0.0019898252689289323,
        0.0019898252689289323,
        0.0019898252689289323,
        0.0019898252689289323,
        0.0019898252689289323,
        0.0019898252689289323,
        0.0019898252689289323,
        0.0019898252689289323,
        0.0019898252689289323,
        0.0019898252689289323,
        0.0019898252689289323,
        0.0019898252689289323,
        0.0019898252689289323,
        0.0019898252689289323,
        0.0019898252689289323,
        0.0019898252689289323,
        0.0019898252689289323,
        0.0019898252689289323,
        0.0019898252689289323,
        0.0019898252689289323,
        0.0019898252689289323,
        0.0019898252689289323,
        0.0019898252689289323,
        0.0019898252689289323,
        0.0019898252689289323,
        0.0019898252689289323,
        0.0019898252689289323,
        0.0019898252689289323,
        0.0019898252689289323,
        0.0019898252689289323,
        0.0019898252689289323,
        0.0019898252689289323,
        0.0019898252689289323,
        0.0019898252689289323,
        0.0019898252689289323,
        0.0019898252689289323,
        0.0019898252689289323,
        0.0019898252689289323,
        0.0019898252689289323,
        0.0019898252689289323,
        0.0019898252689289323,
        0.0019898252689289323,
        0.0019898252689289323,
        0.0019898252689289323,
        0.0019898252689289323,
        0.0019898252689289323,
        0.0019898252689289323,
        0.0019898252689289323,
        0.0019898252689289323,
        0.0019898252689289323,
        0.0019898252689289323,
        0.0019898252689289323,
        0.0019898252689289323,
        0.0019898252689289323,
        0.0019898252689289323,
        0.0019898252689289323,
        0.0019898252689289323,
        0.0019898252689289323,
        0.0019898252689289323,
        0.0019898252689289323,
        0.0019898252689289323,
        0.0019898252689289323,
        0.0019898252689289323,
        0.0019898252689289323,
        0.0019898252689289323,
        0.0019898252689289323,
        0.0019898252689289323,
        0.0019898252689289323,
        0.0019898252689289323,
        0.0019898252689289323,
        0.0019898252689289323,
        0.0019898252689289323,
        0.0019898252689289323,
        0.0019898252689289323,
        0.0019898252689289323,
        0.0019898252689289323,
        0.0019898252689289323,
        0.0019898252689289323,
        0.0019898252689289323,
        0.0019898252689289323,
        0.0019898252689289323,
        0.0019898252689289323,
        0.0019898252689289323,
        0.0019898252689289323,
        0.0019898252689289323,
        0.0019898252689289323,
        0.0019898252689289323,
        0.0019898252689289323,
        0.0019898252689289323,
        0.0019898252689289323,
        0.0019898252689289323,
        0.0019898252689289323,
        0.0019898252689289323,
        0.0019898252689289323,
        0.0019898252689289323,
        0.0019898252689289323,
        0.0019898252689289323,
        0.0019898252689289323,
        0.0019898252689289323,
        0.0019898252689289323,
        0.0019898252689289323,
        0.0019898252689289323,
        0.0019898252689289323,
        0.0019898252689289323,
        0.0019898252689289323,
        0.0019898252689289323,
        0.0019898252689289323,
        0.0019898252689289323,
        0.0019898252689289323,
        0.0019898252689289323,
        0.0019898252689289323,
        0.0019898252689289323,
        0.0019898252689289323,
        0.0019898252689289323,
        0.0019898252689289323,
        0.0019898252689289323,
        0.0019898252689289323,
        0.0019898252689289323,
        0.0019898252689289323,
        0.0019898252689289323,
        0.0019898252689289323,
        0.0019898252689289323,
        0.0019898252689289323,
        0.0019898252689289323,
        0.0019898252689289323,
        0.0019898252689289323,
        0.0019898252689289323,
        0.0019898252689289323,
        0.0019898252689289323,
        0.0019898252689289323,
        0.0019898252689289323,
        0.0019898252689289323,
        0.0019898252689289323,
        0.0019898252689289323,
        0.0019898252689289323,
        0.0019898252689289323,
        0.0019898252689289323,
        0.0019898252689289323,
        0.0019898252689289323,
        0.0019898252689289323,
        0.0019898252689289323,
        0.0019898252689289323,
        0.0019898252689289323,
        0.0019898252689289323,
        0.0019898252689289323,
        0.0019898252689289323,
        0.0019898252689289323,
        0.0019898252689289323,
        0.0019898252689289323,
        0.0019898252689289323,
        0.0019898252689289323,
        0.0019898252689289323,
        0.0019898252689289323,
        0.0019898252689289323,
        0.0019898252689289323,
        0.0019898252689289323,
        0.0019898252689289323,
        0.0019898252689289323,
        0.0019898252689289323,
        0.0019898252689289323,
        0.0019898252689289323,
        0.0019898252689289323,
        0.0019898252689289323,
        0.0019898252689289323,
        0.0019898252689289323,
        0.0019898252689289323,
        0.0019898252689289323,
        0.0019898252689289323,
        0.0019898252689289323,
        0.0019898252689289323,
        0.0019898252689289323,
        0.0019898252689289323,
        0.0019898252689289323,
        0.0019898252689289323,
        0.0019898252689289323,
        0.0019898252689289323,
        0.0019898252689289323,
        0.0019898252689289323,
        0.0019898252689289323,
        0.0019898252689289323,
        0.0019898252689289323,
        0.0019898252689289323,
        0.0019898252689289323,
        0.0019898252689289323,
        0.0019898252689289323,
        0.0019898252689289323,
        0.0019898252689289323,
        0.0019898252689289323,
        0.0019898252689289323,
        0.0019898252689289323,
        0.0019898252689289323,
        0.0019898252689289323,
        0.0019898252689289323,
        0.0019898252689289323,
        0.0019898252689289323,
        0.0019898252689289323,
        0.0019898252689289323,
        0.0019898252689289323,
        0.0019898252689289323,
        0.0019898252689289323,
        0.0019898252689289323,
        0.0019898252689289323,
        0.0019898252689289323,
        0.0019898252689289323,
        0.0019898252689289323,
        0.0019898252689289323,
        0.0019898252689289323,
        0.0019898252689289323,
        0.0019898252689289323,
        0.0019898252689289323,
        0.0019898252689289323,
        0.0019898252689289323,
        0.0019898252689289323,
        0.0019898252689289323,
        0.0019898252689289323,
        0.0019898252689289323,
        0.0019898252689289323,
        0.0019898252689289323,
        0.0019898252689289323,
        0.0019898252689289323,
        0.0019898252689289323,
        0.0019898252689289323,
        0.0019898252689289323,
        0.0019898252689289323,
        0.0019898252689289323,
        0.0019898252689289323,
        0.0019898252689289323,
        0.0019898252689289323,
        0.0019898252689289323,
        0.0019898252689289323,
        0.0019898252689289323,
        0.0019898252689289323,
        0.0019898252689289323,
        0.0019898252689289323,
        0.0019898252689289323,
        0.0019898252689289323,
        0.0019898252689289323,
        0.0019898252689289323,
        0.0019898252689289323,
        0.0019898252689289323,
        0.0019898252689289323,
        0.0019898252689289323,
        0.0019898252689289323,
        0.0019898252689289323,
        0.0019898252689289323,
        0.0019898252689289323,
        0.0019898252689289323,
        0.0019898252689289323,
        0.0019898252689289323,
        0.0019898252689289323,
        0.0019898252689289323,
        0.0019898252689289323,
        0.0019898252689289323,
        0.0019898252689289323,
        0.0019898252689289323,
        0.0019898252689289323,
        0.0019898252689289323,
        0.0019898252689289323,
        0.0019898252689289323,
        0.0019898252689289323,
        0.0019898252689289323,
        0.0019898252689289323,
        0.0019898252689289323,
        0.0019898252689289323,
        0.0019898252689289323,
        0.0019898252689289323,
        0.0019898252689289323,
        0.0019898252689289323,
        0.0019898252689289323,
        0.0019898252689289323,
        0.0019898252689289323,
        0.0019898252689289323,
        0.0019898252689289323,
        0.0019898252689289323,
        0.0019898252689289323,
        0.0019898252689289323,
        0.0019898252689289323,
        0.0019898252689289323,
        0.0019898252689289323,
        0.0019898252689289323,
        0.0019898252689289323,
        0.0019898252689289323,
        0.0019898252689289323,
        0.0019898252689289323,
        0.0019898252689289323,
        0.0019898252689289323,
        0.0019898252689289323,
        0.0019898252689289323,
        0.0019898252689289323,
        0.0019898252689289323,
        0.0019898252689289323,
        0.0019898252689289323,
        0.0019898252689289323,
        0.0019898252689289323,
        0.0019898252689289323,
        0.0019898252689289323,
        0.0019898252689289323,
        0.0019898252689289323,
        0.0019898252689289323,
        0.0019898252689289323,
        0.0019898252689289323,
        0.0019898252689289323,
        0.0019898252689289323,
        0.0019898252689289323,
        0.0019898252689289323,
        0.0019898252689289323,
        0.0019898252689289323,
        0.0019898252689289323,
        0.0019898252689289323,
        0.0019898252689289323,
        0.0019898252689289323,
        0.0019898252689289323,
        0.0019898252689289323,
        0.0019898252689289323,
        0.0019898252689289323,
        0.0019898252689289323,
        0.0019898252689289323,
        0.0019898252689289323,
        0.0019898252689289323,
        0.0019898252689289323,
        0.0019898252689289323,
        0.0019898252689289323,
        0.0019898252689289323,
        0.0019898252689289323,
        0.0019898252689289323,
        0.0019898252689289323,
        0.0019898252689289323,
        0.0019898252689289323,
        0.0019898252689289323,
        0.0019898252689289323,
        0.0019898252689289323,
        0.0019898252689289323,
        0.0019898252689289323,
        0.0019898252689289323,
        0.0019898252689289323,
        0.0019898252689289323,
        0.0019898252689289323,
        0.0019898252689289323,
        0.0019898252689289323,
        0.0019898252689289323,
        0.0019898252689289323,
        0.0019898252689289323,
        0.0019898252689289323,
        0.0019898252689289323,
        0.0019898252689289323,
        0.0019898252689289323,
        0.0019898252689289323,
        0.0019898252689289323,
        0.0019898252689289323,
        0.0019898252689289323,
        0.0019898252689289323,
        0.0019898252689289323,
        0.0019898252689289323,
        0.0019898252689289323,
        0.0019898252689289323,
        0.0019898252689289323,
        0.0019898252689289323,
        0.0019898252689289323,
        0.0019898252689289323,
        0.0019898252689289323,
        0.0019898252689289323,
        0.0019898252689289323,
        0.0019898252689289323,
        0.0019898252689289323,
        0.0019898252689289323,
        0.0019898252689289323,
        0.0019898252689289323,
        0.0019898252689289323,
        0.0019898252689289323,
        0.0019898252689289323,
        0.0019898252689289323,
        0.0019898252689289323,
        0.0019898252689289323,
        0.0019898252689289323,
        0.0019898252689289323,
        0.0019898252689289323,
        0.0019898252689289323,
        0.0019898252689289323,
        0.0019898252689289323,
        0.0019898252689289323,
        0.0019898252689289323,
        0.0019898252689289323,
        0.0019898252689289323,
        0.0019898252689289323,
        0.0019898252689289323,
        0.0019898252689289323,
        0.0019898252689289323,
        0.0019898252689289323,
        0.0019898252689289323,
        0.0019898252689289323,
        0.0019898252689289323,
        0.0019898252689289323,
        0.0019898252689289323,
        0.0019898252689289323,
        0.0019898252689289323,
        0.0019898252689289323,
        0.0019898252689289323,
        0.0019898252689289323,
        0.0019898252689289323,
        0.0019898252689289323,
        0.0019898252689289323,
        0.0019898252689289323,
        0.0019898252689289323,
        0.0019898252689289323,
        0.0019898252689289323,
        0.0019898252689289323,
        0.0019898252689289323,
        0.0019898252689289323,
        0.0019898252689289323,
        0.0019898252689289323,
        0.0019898252689289323,
        0.0019898252689289323,
        0.0019898252689289323,
        0.0019898252689289323,
        0.0019898252689289323,
        0.0019898252689289323,
        0.0019898252689289323,
        0.0019898252689289323,
        0.0019898252689289323,
        0.0019898252689289323,
        0.0019898252689289323,
        0.0019898252689289323,
        0.0019898252689289323,
        0.0019898252689289323,
        0.0019898252689289323,
        0.0019898252689289323,
        0.0019898252689289323,
        0.0019898252689289323,
        0.0019898252689289323,
        0.0019898252689289323,
        0.0019898252689289323,
        0.0019898252689289323,
        0.0019898252689289323,
        0.0019898252689289323,
        0.0019898252689289323,
        0.0019898252689289323,
        0.0019898252689289323,
        0.0019898252689289323,
        0.0019898252689289323,
        0.0019898252689289323,
        0.0019898252689289323,
        0.0019898252689289323,
        0.0019898252689289323,
        0.0019898252689289323,
        0.0019898252689289323,
        0.0019898252689289323,
        0.0019898252689289323,
        0.0019898252689289323,
        0.0019898252689289323,
        0.0019898252689289323,
        0.0019898252689289323,
        0.0019898252689289323,
        0.0019898252689289323,
        0.0019898252689289323,
        0.0019898252689289323,
        0.0019898252689289323,
        0.0019898252689289323,
        0.0019898252689289323,
        0.0019898252689289323,
        0.0019898252689289323,
        0.0019898252689289323,
        0.0019898252689289323,
        0.0019898252689289323,
        0.0019898252689289323,
        0.0019898252689289323,
        0.0019898252689289323,
        0.0019898252689289323,
        0.0019898252689289323,
        0.0019898252689289323,
        0.0019898252689289323,
        0.0019898252689289323,
        0.0019898252689289323,
        0.0019898252689289323,
        0.0019898252689289323,
        0.0019898252689289323,
        0.0019898252689289323,
        0.0019898252689289323,
        0.0019898252689289323,
        0.0019898252689289323,
        0.0019898252689289323,
        0.0019898252689289323,
        0.0019898252689289323,
        0.0019898252689289323,
        0.0019898252689289323,
        0.0019898252689289323,
        0.0019898252689289323,
        0.0019898252689289323,
        0.0019898252689289323,
        0.0019898252689289323,
        0.0019898252689289323,
        0.0019898252689289323,
        0.0019898252689289323,
        0.0019898252689289323,
        0.0019898252689289323,
        0.0019898252689289323,
        0.0019898252689289323,
        0.0019898252689289323,
        0.0019898252689289323,
        0.0019898252689289323,
        0.0019898252689289323,
        0.0019898252689289323,
        0.0019898252689289323,
        0.0019898252689289323,
        0.0019898252689289323,
        0.0019898252689289323,
        0.0019898252689289323,
        0.0019898252689289323,
        0.0019898252689289323,
        0.0019898252689289323,
        0.0019898252689289323
      ],
      [
        0.32019058066750145,
        0.09594325196363264,
        1.0486592029866113,
        0.5319978204149488,
        0.14984897022331867,
        -1.2120366460864702,
        0.6213422747798901,
        -1.5911904492867694,
        -0.23202077518277425,
        -0.503864059190784,
        2.22376769719392,
        0.7452294788866738,
        -0.20667109045375204,
        0.7230614731944648,
        0.4729716251938093,
        0.6561319113576932,
        0.3349786544308136,
        -0.1487594743390988,
        -0.010197703956799777,
        -0.049883093638309714,
        0.6855440424440792,
        -1.1382099065660658,
        0.7310426621685445,
        -1.0526270152436716,
        0.592084566907109,
        0.03900943855023814,
        -0.3898340306598537,
        0.9638848079648461,
        -1.0611168466491865,
        1.150654856776581,
        -0.054597700287406695,
        -1.0418524865700312,
        -0.6359729172351322,
        -0.06312960925546066,
        -1.9054299902750567,
        -1.205949965342753,
        0.2466543646826429,
        -1.4889483517842956,
        0.41305741798831797,
        -1.582268259829641,
        0.4125546839293531,
        0.013612377277501742,
        0.321916837334525,
        -0.24687482197217547,
        -0.36008271829606225,
        -2.221632438033423,
        -0.6590358561663217,
        -0.2745920333625992,
        0.9210554372164713,
        -0.2299478869783972,
        0.30716994818895954,
        0.8947488681237178,
        0.12012708073719605,
        1.1523026723237217,
        0.022790733896536124,
        0.43668523906594303,
        -0.5495146333380135,
        -0.675946808929736,
        0.8594804408992439,
        -2.1150515941284653,
        0.9022102188206891,
        0.07769062272462811,
        -0.10456093269187448,
        0.8104354735652844,
        -0.5204843093267204,
        -0.7238192858897955,
        -1.294755426353096,
        0.04436548444128159,
        -1.6946572059093192,
        0.1384659059518249,
        0.15604946394184355,
        -2.368627857005122,
        0.3253060823532611,
        -0.2109196270092532,
        -0.2130389722252241,
        -0.4482458522091436,
        -0.6535346126029475,
        -0.4585120242074716,
        0.09112462518632018,
        0.3237368134794518,
        0.6810164018293349,
        -1.2362938487470647,
        -1.7661016836658212,
        1.2380899833427461,
        -0.7011332099393517,
        0.46005287090931646,
        -1.5553884393458541,
        -0.017270927844234098,
        -1.4465091426565007,
        -0.45347515550621953,
        0.3601810999238718,
        -0.6849486397484936,
        -0.5928671322763951,
        0.3869099520048829,
        0.3723208291505057,
        -0.4643124958343478,
        1.3157576714868222,
        -1.6675802957923829,
        0.6849863168252344,
        1.4693980695204112,
        -0.7710707634417663,
        -0.11446146762168112,
        -2.3569525806381253,
        2.030624334747703,
        -1.6470185310500585,
        0.8144401610788442,
        -2.0817475828265883,
        0.25425655567078026,
        0.485421978113863,
        0.2530593741842835,
        -0.27436674275518264,
        1.3408139763588092,
        -1.570128964325378,
        0.00014258817100692354,
        1.2947726623715528,
        -0.2620510669345801,
        0.10364874327685634,
        0.38663188968278445,
        -0.7486766299995498,
        1.5765919730396385,
        0.6351247136964573,
        -0.04546492834187825,
        -0.8017406025267136,
        0.2040390842049058,
        1.2551546510896046,
        0.4370989910308698,
        -0.2191732395208077,
        -0.8010259740471328,
        -0.8332904576057625,
        1.989481975368912,
        1.9344259855274455,
        -0.33684500453734423,
        -0.32759424044192664,
        2.1888209546482944,
        -1.7933901939432622,
        -1.4266439504095658,
        -1.7699178502017276,
        1.5855259592657354,
        0.421836434107886,
        -0.010291163731794405,
        0.4496704039440962,
        0.4824323827107132,
        1.3506943175204733,
        1.1643246272178354,
        0.19488331645342227,
        -3.6542947538454396,
        -0.27050241154262494,
        0.03579671068656065,
        -1.4428026716083564,
        -1.2278650510383347,
        0.9156034110162737,
        -2.2198527747653634,
        1.7577799734331894,
        -1.3955294352040497,
        0.7770067633679492,
        2.162903650272458,
        -0.6935349300570475,
        -0.5149669349543845,
        2.6196094754479,
        0.7429728692412537,
        -0.6645355890758085,
        1.0779894876773486,
        -1.1603460565613564,
        -0.07569474002606824,
        -1.8431689624312333,
        -0.7733619730780178,
        -2.2326785254323886,
        -0.4512426583243099,
        -0.998230885456624,
        -1.1255598629952572,
        -1.3229305294528888,
        0.10823869532752624,
        2.640388020679532,
        -0.6206807274650715,
        1.1056494839409425,
        -1.6448269439830978,
        0.07663600229572647,
        -1.778294111987523,
        -1.1063622446562644,
        0.8101368053874479,
        0.3068583585429917,
        0.043075343487308584,
        0.8222518233503715,
        2.2062392504107984,
        -1.0134267669073733,
        0.8674834210385218,
        1.2266708018299963,
        -0.720844016717151,
        -0.1613231540561585,
        1.2974362292076418,
        -0.22667227342216667,
        -0.3559155407059266,
        1.1707037818897321,
        -1.1036858233240738,
        1.5742618469753364,
        -0.15250406366951558,
        -1.232552017585123,
        0.09707083184394392,
        1.188156896523478,
        -0.6614901023248003,
        -1.2526902109132532,
        0.24352409937008473,
        -1.1870808566292739,
        1.3789557439818267,
        0.20450082795279678,
        0.00601687012765318,
        0.28370650606129927,
        0.2200055188634904,
        -1.6210364513644202,
        -0.9651248325270019,
        0.2769773076188926,
        -0.6350971209577871,
        -0.25941747909537544,
        1.0744311444783483,
        1.2335296346072984,
        -0.6310680663580499,
        0.736270653796942,
        0.84007736934372,
        -0.4916792952855827,
        -1.0728752407592226,
        -0.38586602509072987,
        -0.6241336370733167,
        0.6409026749986207,
        -0.6077073758582283,
        -0.10691727469152677,
        0.33669581081804834,
        -1.168210270588605,
        0.031218050903212162,
        -0.5761979746235586,
        0.7497824654128745,
        0.16826550560612402,
        -1.270788233289227,
        2.2901553931955525,
        -1.480344810687968,
        0.31751748120550527,
        0.5503075570716635,
        0.054397977640686934,
        0.18112760744393985,
        0.3206973602792867,
        1.2424598180327566,
        0.6873848059638249,
        -0.3345317713565726,
        1.24093085697684,
        0.40070424724564446,
        0.570800272826702,
        0.0957831101933276,
        -0.16091665480783263,
        -2.3140201268725242,
        0.3341167527503731,
        -0.42775034005300083,
        0.5450440375581815,
        -0.32734353553060813,
        -0.5606028576871496,
        0.8609437440699224,
        0.49361100324046503,
        0.4860970593323638,
        0.3227324723125605,
        0.5475221837530533,
        1.409430568654956,
        0.3253659950088736,
        1.1654803862628995,
        -0.8462123270041662,
        -1.2365229674406666,
        -1.0883470264365755,
        0.5714543219196739,
        1.532632499845094,
        1.1866765734918938,
        -0.7579418537792867,
        1.924493770747385,
        0.6039065339652173,
        0.28708190439001485,
        -0.16039100990508093,
        -0.6340995205645972,
        -0.7737016805368929,
        0.4109130674052367,
        -0.42866202979774526,
        -0.30139490327794016,
        -0.07200379345801938,
        0.41563332070050335,
        -1.6508509890308107,
        -0.12347992151490338,
        0.04166045086678384,
        1.6224800783268893,
        0.8566274594861362,
        -0.5167853733357614,
        -1.3804135528103818,
        0.30628714193543555,
        -0.2510630454799144,
        -0.4698354933622721,
        -0.27192976074535136,
        -1.2999941932796486,
        0.63046134500288,
        -1.1935889116817298,
        -0.24712030087678089,
        -0.6080467507517272,
        -2.4508614891515914,
        -2.018590720873074,
        -1.7682289987916369,
        -2.0923068992820717,
        -0.16897215249414,
        -0.78499519763604,
        -1.3871581673234559,
        -0.3929007589626457,
        0.3591702434946642,
        0.565465695395145,
        -1.3626158781900894,
        0.16949907089056404,
        -0.20168185918546716,
        -1.3356860295323902,
        0.4267091819983697,
        -0.9915379006494016,
        0.29234498733358777,
        -1.872581737812688,
        -1.6490800987547194,
        1.4425732551332084,
        0.36593793250256895,
        -0.7579333944679231,
        0.24596868231039065,
        0.18008885923789036,
        1.2519907123842986,
        0.45705664714512395,
        0.5833739358769968,
        -1.301877759236659,
        0.7855928871703483,
        -1.3268613302562227,
        0.9906207713018995,
        0.6788668938922301,
        -0.8997466853474904,
        0.6824574725654465,
        -0.5800272223776393,
        -0.8486240838103514,
        -1.2306258343014758,
        -0.021597715562347956,
        -0.7805663965820555,
        -0.0604824832122811,
        1.3167851690448455,
        -0.08107160752991116,
        -0.5872956703642046,
        -2.3353339066777874,
        0.46163226538519164,
        -0.7425463481137772,
        1.032494169917449,
        -0.6828581094096307,
        0.6354503464838395,
        -1.908849455433683,
        -0.08424928566612569,
        -0.3643081055563511,
        -0.7458816190658463,
        0.19343735524281302,
        0.6321782811924872,
        0.706042428277222,
        -0.1285495821032061,
        -2.520168294885993,
        -1.2580056783377453,
        1.1338272498800723,
        0.4181543810633702,
        -1.2680767304627187,
        -0.8277767848683353,
        1.0560570966333827,
        -0.6916267853883671,
        -1.246732480406021,
        -0.20650658777158254,
        -0.5860079061108158,
        -0.942247331773693,
        -0.7261740066209315,
        0.3714275908439306,
        -0.49933875326749566,
        0.43393098295884336,
        -2.531317363109753,
        1.448354077910877,
        -1.2861325251150757,
        -1.9389470049754474,
        -1.6526047431372601,
        0.328472323871169,
        -0.9295649872039846,
        -1.9202737648175707,
        0.5908221112222202,
        0.42370461587895275,
        -1.3847471314943551,
        -0.586619873939486,
        -0.37707990841429934,
        -2.101908706611883,
        -0.4396479439775044,
        -0.20892287540348897,
        -0.16506653740956023,
        -1.444791176102738,
        -0.922649406986171,
        0.2887150994122665,
        -0.7946090638586295,
        1.7197738670509621,
        1.3993793822452079,
        -0.5511478772242656,
        -0.823338392052921,
        -2.223955337851864,
        -1.2246565840795836,
        0.19086638596138505,
        -0.44436836670990043,
        -0.2518205477623642,
        -2.3219393587784407,
        0.09758836286287458,
        -0.30292572148863756,
        -0.47689620770070146,
        -1.07293310851224,
        -0.18073549172138276,
        1.0547045347657773,
        -0.4171407971652662,
        0.24330711462834326,
        -1.2700263977272868,
        -1.3914227841883124,
        -0.0016554308051172813,
        0.9141064830609206,
        -0.6646929564369638,
        -1.2635446491991722,
        0.22921466321999423,
        -0.18646829881116472,
        0.036814662773293885,
        -0.4360756345011305,
        -0.48418696324328564,
        0.9280539772040288,
        -0.23537760840879746,
        -0.3150705838957714,
        0.46240738272706305,
        0.08929057924348228,
        0.6566925799276218,
        2.0181741404370106,
        0.297331239377193,
        0.8980994757389029,
        0.31122955274082004,
        -2.1417299322140786,
        -0.07216096508165287,
        -0.06813488803000106,
        0.631820422253308,
        -1.6256658772923664,
        0.6515384297880368,
        1.3769217080489973,
        -1.516306168297274,
        -1.4484594756929603,
        2.1118093246628833,
        0.41388187547094785,
        0.5933250689768579,
        0.6211735170524678,
        -0.8937113725866955,
        -2.114560221377033,
        -1.256697186881897,
        -0.2801921913530678,
        -1.8718839378271492,
        1.743269305680066,
        -0.8915839553244576,
        -0.9144384265534216,
        1.3833996372293023,
        1.4001675004039134,
        0.6782892272389065,
        -0.331247185507728,
        -1.2825838511085248,
        -0.28213533190610074,
        -0.27162413342440295,
        -0.6455167719769398,
        -0.3760570195823767,
        -0.2806153546211164,
        -0.37214627235808917,
        0.7071589457832285,
        -0.7689473145866683,
        -1.0362392479525804,
        0.3808480808120668,
        -1.3692373962171547,
        0.8544297449255099,
        0.38208296115779633,
        0.6617278604664553,
        0.039926003582042846,
        1.3187265760752642,
        -0.4506338216389886,
        -0.6861056223220406,
        -0.3111061988551696,
        -0.1774684799955859,
        0.8580000891992114,
        -0.5469137526704385,
        0.3318153531476024,
        -1.2444706507169647,
        -1.407237423011742,
        -0.6007940071793239,
        -0.8184143681451443,
        -0.31840093396398833,
        1.0782906584195608,
        0.5865054166699758,
        -1.5666455915718251,
        0.9009006814068543,
        0.5075015751540628,
        0.3709529350450874,
        -1.0820221534415957,
        1.6984720477113362,
        -0.025626179831306238,
        0.3074266340304009,
        -1.8085489862656638,
        -0.5864148396467653,
        0.9389510180009555,
        0.011108549514554315,
        -0.6174072576857759,
        0.4329090274280716,
        0.46723450073328865,
        -0.3125964864194066,
        1.1799470756607964,
        -0.0627961882970835,
        -0.917140231308195,
        0.008418095916798946,
        -1.3481262223425385,
        -0.038257755164916266,
        2.124769027357521,
        -0.043348537567746884,
        0.19815094839031916,
        0.800868137958395,
        0.018346008024912423,
        0.5796006618702508
      ],
      [
        1.9219988031760828,
        -0.703890406139782,
        0.20064022583340285,
        0.8175994197677013,
        -0.6438478760750295,
        1.6756728258956501,
        -1.808319374787802,
        -1.22782183759641,
        -1.7078315484042954,
        -1.3075322347136367,
        -0.532672927838191,
        0.664667152081284,
        0.4464305735510809,
        -0.8816902417667712,
        0.3278867041507897,
        0.5002695812940896,
        -0.2677717901106825,
        -0.6921770567821186,
        1.5224920146463496,
        -0.27453269200317143,
        0.9604152280895897,
        0.7728835210598763,
        -0.24959206619441562,
        -0.9478486436432312,
        -0.7563363901842308,
        0.33273512577942754,
        0.5521027472152793,
        -0.1652401148568807,
        0.46539586148476203,
        0.4659474079714304,
        1.9830443283532777,
        0.3305393750690812,
        1.0728155560729147,
        0.6506690666355375,
        -0.043665527432733615,
        0.41621852215212535,
        -0.2605819865587418,
        -0.4664165460229269,
        -1.910887882421002,
        -0.7540116443304061,
        0.80696168683304,
        1.2823385049584677,
        1.076007098282018,
        0.8913901766376808,
        0.4217019941480243,
        -0.9793347084391368,
        -0.8836082116474798,
        1.1733216356135245,
        -0.928192378286761,
        1.6289317620401143,
        -0.8330052887603991,
        -0.2540896019293046,
        -1.499578553992885,
        1.0047699619471862,
        -0.4747855972091681,
        -0.4306183690891549,
        -0.11197000523697773,
        0.9731515596022811,
        -0.20659311218423707,
        0.6597106526301794,
        1.644231352287216,
        -1.6054176412081564,
        -0.6905242463096896,
        1.3990278550281126,
        0.14395749476574993,
        -0.8172094094112918,
        0.16418475092162726,
        -0.9335123096784607,
        2.116651633412179,
        -0.09785250978727716,
        0.6438811253774164,
        0.8908765066152756,
        0.05555259062083437,
        0.23786741864242766,
        -0.9506768643591088,
        1.3161319134226517,
        -0.9999344984195009,
        -0.9327581611473503,
        -0.8655888440545161,
        0.36910927149087985,
        -0.5836862960322036,
        -0.05129078312582895,
        1.0523191140765809,
        0.6534492614448539,
        -0.45527139514936005,
        -0.43486351959185476,
        0.8177166208009903,
        -2.3051260968055907,
        -1.0255501357729857,
        0.04030614989860677,
        -0.2347842049509888,
        -0.5164074329704571,
        -1.0815154011072114,
        0.16118915274731607,
        0.5730469798382722,
        -0.13253762645467085,
        0.1693034028016626,
        0.2663454605886746,
        0.7790363267129526,
        -0.4410453158884535,
        -2.0918705118816754,
        0.15404807693147926,
        -0.6864142691893379,
        -1.0679329634510855,
        -0.9436868273681773,
        -1.0013056459813892,
        1.4457930982388771,
        2.401056255706359,
        -1.0430955839630074,
        -1.7328846098754953,
        1.2815970276724133,
        -1.6549617860099948,
        0.47443949379365613,
        0.7776015841135264,
        -1.050779196643155,
        1.056994548538325,
        -0.28658528572210035,
        1.116494864526816,
        -0.9364742956705085,
        0.442726946761853,
        0.29924619034777905,
        -1.0762618179698484,
        1.5994181482262706,
        1.5151947470428795,
        0.22580702748111445,
        -0.8638255574902636,
        0.23732602495998734,
        1.8369351034490131,
        -1.9755644248088644,
        -0.4507872366512902,
        1.3943203298024711,
        0.674381819567192,
        -1.1349282279304618,
        0.27930196640935745,
        2.352704814204173,
        0.2417852779688563,
        2.0248538674252154,
        0.5761474065337927,
        0.9745315875711031,
        -0.48891107469872735,
        2.4138510782163407,
        1.436740565186593,
        -0.24472826972542616,
        0.6751293250451051,
        -0.4639991360121258,
        1.2837130615242076,
        -0.6292261940222044,
        -0.03892916118434925,
        -0.9545396962651969,
        -0.11113685673773979,
        0.13345556252011487,
        -0.10114432769361276,
        0.5926470407223013,
        -0.0123581225000156,
        -0.43670732620843195,
        -0.19451817495552953,
        0.16103014943497515,
        0.847356022610217,
        2.3184819633090776,
        -0.04917646401024019,
        -0.23513848383025157,
        -0.7996065358906319,
        0.277706858774956,
        -0.05403594978503478,
        0.7300545611155054,
        -0.21170982414273445,
        0.09307475795996555,
        -0.8332601748156291,
        0.1833673657448503,
        -0.9605535695352103,
        -2.1243061308323283,
        1.360915639956719,
        -0.12382351907999876,
        1.874522922090678,
        0.8004061467760802,
        0.2930905970084935,
        1.4871122017584337,
        -1.51106332570718,
        -0.45327092876012437,
        -1.4036959771682085,
        0.055820596866398516,
        0.7162732005625143,
        0.3357828187430111,
        -1.4149700573683457,
        0.48304905013428195,
        -0.7842712484044897,
        -0.34388725835812184,
        -0.9914536972610741,
        -1.0153339016756338,
        0.31638640881774377,
        0.7677019007377099,
        0.6245431998386808,
        -0.22417196552610213,
        0.2948257040335089,
        -1.3576630119573792,
        -0.3633147752055446,
        0.2978503770910152,
        -2.203169916941004,
        0.99569512029355,
        -2.361814995961489,
        -1.2613468878530314,
        -0.07196466458911965,
        -0.784271817072274,
        1.1774671639122283,
        -0.3629758245287582,
        -1.6913952891219317,
        -0.3034000776829819,
        0.0057132727593973845,
        0.6810074150607835,
        1.0356136001753933,
        -1.049813442388575,
        -0.015342347155173502,
        0.3833765681612041,
        0.6160668510179076,
        -0.1171402227839324,
        -0.4937243184409348,
        1.2938425318870728,
        0.36541888684221135,
        0.2860796688025364,
        -0.6708438330544844,
        -0.38631122983875943,
        -0.21263427258293652,
        0.534243217107279,
        -0.9966981740084528,
        -1.46052824690592,
        -0.8592254125292036,
        0.003849116403213286,
        0.06910875024046205,
        -0.21893820754293739,
        -0.6729617103985889,
        0.01337879965702952,
        -0.1802838088362788,
        -0.6277717272874255,
        -0.9564509164113839,
        -0.7729286483074046,
        0.7908959819459558,
        -2.753608339457113,
        0.5110102281996013,
        -1.1663422678214044,
        -0.7174235555749875,
        -0.5587731064027508,
        -2.198220490023256,
        -1.3879104854004987,
        -1.135114295145823,
        -0.9287397814075828,
        1.7480161789946098,
        0.9102555729098956,
        0.07337299028388723,
        2.15937402616484,
        0.006584145401860839,
        -1.1295317511780631,
        -1.1735462275564545,
        -2.7076880560881924,
        2.393571546173107,
        0.6291385048768513,
        -1.5048280114704666,
        1.609155806546246,
        -0.07405221984271022,
        -0.9420317685017624,
        -0.7332999807369517,
        -0.23538272409500036,
        -0.5124440247029772,
        -2.4673696656320674,
        0.769365746392537,
        0.49078752803449244,
        -0.009995342379557919,
        -3.038153762688181,
        -0.4651316231355322,
        1.472976288615779,
        -0.11238263131288449,
        0.4087223078173636,
        -0.7702471046169268,
        1.2521706767074556,
        -0.5085852875383161,
        -1.250731575357676,
        0.6932400212499769,
        -1.2063080678871447,
        -0.2987890335971206,
        0.10461482739050246,
        0.6328052478427361,
        1.2976487725283612,
        -1.6845709408084535,
        1.294226591993603,
        -1.0495526724656274,
        -0.6712535815105305,
        -0.1785608439448891,
        0.18145869441904963,
        0.16370101056514194,
        -1.8360373271475747,
        -1.1245204398984476,
        -0.5248386985478807,
        -1.4743582161406512,
        1.467359000827826,
        -0.36233890915656125,
        0.6803668862714404,
        -1.6305301728809123,
        -1.5221046186000253,
        -0.11206156250444202,
        -0.6692477900328824,
        -0.5829554101481795,
        -1.1144417826557504,
        0.9672064051570539,
        -0.47845047085942594,
        -1.573475385941371,
        -1.1312359237876952,
        0.8249099334812126,
        -0.09826355350999748,
        0.03378200093596073,
        -0.08453647342516699,
        -0.5455294300231087,
        -0.36403098310929455,
        0.19568311395055446,
        -0.8146078063469135,
        1.0120652874997553,
        -0.9540978071704753,
        -1.2436597352816767,
        0.24053355033631166,
        0.18832989615840945,
        0.8148820969066127,
        -0.028604223034270453,
        -1.777873017705783,
        -0.1699544552044356,
        -0.6906895354106524,
        0.12734346181847472,
        -0.12683955388846857,
        -1.4704986063665666,
        1.1442670376337807,
        0.33932287795990734,
        1.3788994652600615,
        0.44418795109404796,
        -1.6229216188437094,
        -0.19792834548963326,
        -0.0808417067283011,
        1.716618462212086,
        0.7438540938933897,
        0.6439446008695052,
        -0.1684354714369321,
        0.4623555671960856,
        0.27709156949405606,
        -0.3678593508074677,
        0.15767439830211574,
        1.2664482708100282,
        0.6055857528171795,
        0.1694657282660767,
        0.14656296031035673,
        1.7740395879619621,
        -0.18906381126499516,
        0.5936336702930797,
        -0.35677866381130663,
        -0.23535335469882296,
        -0.1307461932727448,
        0.6597736047599224,
        -1.1253630328110678,
        -0.7639797653859894,
        -1.8269463956808722,
        -0.0026220933219105206,
        -1.2431869814940304,
        -0.22295386255535057,
        -0.06792858930303346,
        -1.0943613169822828,
        0.28418902520463757,
        1.0630390526085973,
        -0.6022594465664621,
        -0.1999178664556731,
        0.21868797974071108,
        1.3897409442896311,
        0.05992621925246158,
        -1.2103359325876677,
        -1.1872200804791784,
        0.010297842981918142,
        0.016090095429937012,
        -0.6080739886806965,
        1.3417208468858792,
        -0.17266045321783274,
        -0.33966648447270315,
        -1.7857508979634837,
        -0.7950102055613223,
        -1.535026075141492,
        -0.7235299760191847,
        -1.5750561210287843,
        -0.6830102287082945,
        0.3133588432013896,
        1.9715894136394951,
        0.5679220086439728,
        -0.840999719273149,
        -0.3592720261395351,
        -0.925363236797054,
        1.2522738120343613,
        -1.1765516791416675,
        -0.44157850893809414,
        0.5359457984216411,
        0.7033781271824182,
        -0.6240823662413556,
        0.3252314758795056,
        0.4213193981509813,
        1.120628034557696,
        0.2501496046310049,
        0.7626388868735628,
        -0.2486286017992935,
        0.42769828003178745,
        0.4939896467102287,
        -1.273490242135127,
        0.32948339182051295,
        0.9121771365981194,
        -0.613584923822365,
        -0.37876233831790046,
        -2.0179330900881136,
        0.7700300785307624,
        0.47205312378503134,
        -0.740029045307373,
        -1.56331036116915,
        -0.7727563755435388,
        -0.2503519452324491,
        0.3710394941041522,
        -0.1213663098753503,
        -0.9216920544720711,
        1.9717126971527856,
        0.3574059835889565,
        0.17041159553552843,
        -2.0909090678944606,
        0.6803020413596418,
        -0.4028595330717342,
        -2.617063711224984,
        0.2622442791547351,
        1.5914058004940277,
        2.4111925720123923,
        -0.7454161173514817,
        -0.39451985789865307,
        0.10381163662112156,
        2.278213699366452,
        -0.6576233822551252,
        1.164621090703374,
        0.2139327763612989,
        -1.1442004476137346,
        -0.743251988873941,
        -0.49173712309809475,
        -0.1549461094112349,
        0.7115187640233572,
        -0.9561710917282872,
        1.7490875022378078,
        -0.9792405417939322,
        0.1921955148717988,
        -1.033081873575688,
        1.2803658951516024,
        0.41456369738357224,
        -0.10386087178378856,
        -0.49013437544468913,
        0.3402205957721419,
        -0.2632482498258466,
        -1.016486330941627,
        -0.20090791760038612,
        1.84795314799212,
        1.0600400282668627,
        0.297046204704358,
        0.685745172717576,
        -0.3003712076330078,
        0.22462967947415285,
        1.368450511778058,
        2.0805854023314962,
        2.6913717410180062,
        -1.3335787845006581,
        0.7973829518206691,
        -0.004528832395824448,
        -0.4052845298960712,
        -0.40628854802342856,
        -0.2927125545217712,
        0.4197017025720378,
        -1.4006357995841114,
        -1.3745268750725297,
        -1.5643943421988007,
        -0.041278703135926006,
        -0.2749012975870784,
        -0.8328969942092193,
        -0.08357244551529584,
        -0.654199619304013,
        -2.6142783199490083,
        -0.6628440190656033,
        -1.9455188802096441,
        -1.5259200770667365,
        0.06891899381217557,
        0.4988058309758892,
        -0.41662543527677415,
        0.4740111151776768,
        0.042957052961753284,
        -0.14700632361661564,
        -1.0720760924789654,
        -1.05059689558941,
        -0.26893058900230266,
        0.5664534637522405,
        0.4528890580107285,
        -1.3283234429906445,
        -0.5207118165006128,
        1.3690092129148763,
        0.6529775802065764,
        2.0084700519875702,
        0.6768570446757181,
        1.24329730504439,
        -0.42975016006868283,
        0.9917061616553022,
        -1.6866791305698505,
        0.5175373021253619,
        -0.024368095821829968,
        -0.8863946727275348,
        0.15863204102727838,
        0.02692783032353638,
        0.9736619181214236,
        -0.28907222511950514,
        -0.18425898453373388,
        -1.134408501847961,
        -0.5492436093383728,
        0.015381866372612305,
        -0.3580638782132946
      ],
      [
        -1.2461405890235173,
        1.5000915751037835,
        1.9002371838710916,
        0.47835514887123504,
        1.184319434013511,
        0.7127813921516966,
        0.5622100212709523,
        -0.3606163957830102,
        0.31888804837716817,
        0.34984432285128414,
        -0.27860362327987204,
        0.86586041991421,
        -0.5600252426941467,
        -0.22455199829710568,
        0.4855124055848639,
        -0.16807764247403212,
        -1.319471614622096,
        -0.14971672304857367,
        0.4968673892069202,
        -1.607399632554932,
        0.06873737217638948,
        0.23777356184011048,
        -0.4650768047520531,
        0.962395471874027,
        -0.517642686760704,
        -0.44027709774415674,
        -0.9224145350045001,
        0.5435401613622532,
        -0.22231558186506667,
        -1.8884541102039687,
        -0.5333899502278088,
        0.7532050843098118,
        0.5443113670044072,
        -1.8217978553965861,
        -1.8155793047735986,
        -0.136372944757029,
        0.4486355746122036,
        0.7532596409745024,
        0.1835163163013607,
        0.2780090337465196,
        0.6330948136541309,
        0.44327420543969914,
        1.5984212602100552,
        -0.47768694101336007,
        0.7269172480838457,
        0.6131786104229259,
        -0.8642768102860036,
        0.30755281607611135,
        -0.5109208771717427,
        0.5646478864120069,
        -0.9335317863413486,
        -0.5904539810311227,
        1.4927523913804082,
        1.830312060624112,
        -0.6206630795618691,
        0.39346711017876196,
        0.5525204754079177,
        -1.206214667815339,
        0.9280701731685571,
        1.0732520043961105,
        0.13937648829750343,
        1.3503854296656788,
        -0.9193047023575027,
        0.23582898944386516,
        -0.04221967149687494,
        0.07697408976037266,
        0.8991181239190694,
        0.6882160105178319,
        -0.7933573565039339,
        0.5377395818228441,
        0.8188444149182249,
        1.112920348977571,
        -0.5430527256498239,
        -1.6239780021487076,
        0.009866933027527211,
        1.0489901903496175,
        0.8592459439012647,
        -0.6366345588299086,
        -1.0138344161119273,
        -1.4831735398466157,
        -0.6548200012098525,
        -0.758219896175322,
        1.1300446298586007,
        -1.0948619044897803,
        0.5192224676227197,
        0.9193663999350922,
        -1.7884049982737302,
        -1.4146619841845498,
        -0.7799397542724813,
        0.23899753420089823,
        -0.8198357216918629,
        0.5267664353552045,
        -0.5644393668892415,
        0.29743528012634507,
        0.781628168590684,
        -0.8291343332725272,
        -2.308010022958323,
        2.090309133015043,
        -1.0876893719988026,
        0.7308094654491974,
        1.0894598954941452,
        1.3683353722229223,
        1.7983301390274167,
        -1.0612146884067866,
        -0.35863623444181375,
        1.5661500426625496,
        -1.2565822798248154,
        0.4481602799930058,
        1.259019764831351,
        -0.6741463343484618,
        0.9827708041377343,
        -0.03954143261193972,
        1.117163742298003,
        0.7197555397237043,
        1.6633671658903388,
        -1.475468046029294,
        0.11314564948827217,
        1.011424956418905,
        -1.0108211651416807,
        -0.18790320650345108,
        0.20211728320095637,
        -0.9671890009913917,
        -0.2050911934325624,
        -0.03738481900074366,
        -0.6147561384247976,
        -1.5218384708584483,
        0.94122048233873,
        0.4260760406248741,
        1.7152606344286518,
        0.9627761999777268,
        0.6394470478476354,
        0.38433712620367627,
        0.3538286806951836,
        -0.0506564664890815,
        -0.22249268892832466,
        0.4586418638156927,
        2.490149481088751,
        -2.0971886072220336,
        -0.5086219796796052,
        -1.5140403544503889,
        -0.31940661600495907,
        0.3881593770915706,
        -1.1076001245261755,
        0.42344712057457123,
        -0.019719150976993973,
        1.2659010278626566,
        2.154504421351928,
        -0.7809784007917546,
        -0.5093104058360706,
        0.31347030761834466,
        1.5538229140924815,
        0.4754436984053314,
        0.5324292343406084,
        0.44129354856819525,
        -0.7348672846962436,
        -0.6011976093999375,
        0.29013330154013245,
        1.7822654615074864,
        1.1394377687865527,
        -0.02739264167308946,
        1.4182178421960585,
        1.02003983099934,
        -0.46969996505675454,
        -1.17351680599804,
        -0.9475836863348341,
        -0.14030251471900057,
        -2.8935322892188484,
        1.111161375967864,
        0.9787471912892935,
        0.5855771263284804,
        0.7550676470064894,
        -1.3800247314801743,
        -0.6575153522411448,
        -0.4464652406440349,
        -0.6076380969463445,
        -0.45696226195628514,
        0.7903246662739354,
        0.8096735781869164,
        -3.438115824128428,
        2.37431843139452,
        1.6322802613011083,
        1.521444207860618,
        -0.5302229814314887,
        -1.4254607282166183,
        -0.876157152992153,
        -0.889717221875344,
        -1.1033915777718812,
        0.5655046298706348,
        -1.55690602554864,
        -0.9020338401204004,
        2.0774193032209802,
        0.7503899139908472,
        0.9248630516974277,
        1.4483674822233454,
        0.9981382757865536,
        0.6359756966033514,
        -0.04838388061101545,
        -0.9388585979459904,
        -0.4794768569266551,
        1.2403443173980744,
        2.1351042445269144,
        0.8190669983047555,
        -0.21542663362335004,
        0.7693643186941936,
        -1.4598392343041866,
        1.0624774657097271,
        -2.36435121497326,
        -0.4471718638741866,
        1.9279255279950718,
        0.40021465523230554,
        0.5556617138598314,
        0.35033596574544384,
        -0.7520348281005402,
        -0.9576460069936598,
        0.8628840782291913,
        1.0439454586886558,
        1.9262873623342152,
        0.6375924148889147,
        0.1578102392572256,
        1.2626649068447053,
        -0.6826170578237503,
        -0.2565293204042101,
        2.4289006249269023,
        0.9337665634918706,
        0.8760671979647048,
        -0.5826323303509,
        1.062578262487995,
        0.09519430085615835,
        1.2185223530708267,
        1.2258185492761229,
        0.7166215147172879,
        -1.0871016275784562,
        -1.1916634112012565,
        -0.3704918877868609,
        -1.0276584386104797,
        0.5633448077441604,
        0.3682098491564301,
        -0.799412097659541,
        -0.13781476584523755,
        -1.2408877686529631,
        0.27249353663317594,
        1.1562284353850543,
        1.7711682342861987,
        0.2969781846270333,
        -0.5711727160040123,
        0.6285026356208085,
        -0.8205367911345097,
        -0.015050537533933457,
        0.0863845995607001,
        -1.9163043499791619,
        -0.7777411558514259,
        -0.30931797089017493,
        2.312959389509659,
        0.7710077218315083,
        -1.2381592804293393,
        -0.8437989770841697,
        1.119982679755864,
        -0.3208308450150674,
        -0.26389425433352437,
        -0.051018042623666965,
        0.9071360635433189,
        0.5641373441862011,
        0.44846784110961724,
        -0.1733039956440923,
        -0.287240234702673,
        0.828019584023125,
        -1.493987527805454,
        -0.750600657621497,
        -0.003170684051664653,
        -0.16239725630506183,
        2.115257159259252,
        -1.169670283691948,
        -0.45485264866330666,
        1.2091720429279305,
        0.8515633323866808,
        -0.27518595227607284,
        0.3029579345207231,
        -1.0399428205193775,
        0.5637615072080986,
        -1.965454958447177,
        0.3856044618821806,
        0.6427049724358477,
        -0.8311465102237134,
        -1.3406754999452761,
        0.45138405817333727,
        0.28487246140922023,
        0.8547659815030357,
        -0.26102120912824706,
        -0.4057946819186261,
        1.1241159468035307,
        -0.608944280405115,
        -1.1962894417979963,
        1.1662987218743717,
        -0.9002219323192373,
        -1.5335874044950824,
        -0.256163513551174,
        -0.3896947372230238,
        -0.6942093698356162,
        -0.8082889461971838,
        1.254593050449907,
        -0.6011997474338523,
        -1.6825652779403346,
        1.491371002994233,
        -1.4647764404092076,
        -0.8089336884054978,
        0.6642909785034488,
        1.1871461813355235,
        0.2922784725414982,
        -1.341025609911436,
        0.29227113899286017,
        -0.4380035709401145,
        2.7462200616596237,
        -2.765727324816333,
        -2.550922931872254,
        0.37961041165138815,
        0.6515648642567403,
        0.9734112317426933,
        -1.399438407475726,
        -0.8385985463276361,
        0.34400507473268266,
        -2.9745636530866917,
        0.27282721338309035,
        0.07650531312230639,
        0.8440341485581001,
        -0.23181379024323112,
        -0.1506730302480858,
        1.0096763579591008,
        -0.9879492875946666,
        -1.193371244058806,
        -0.07072043907396018,
        -0.7138012065763545,
        -0.9068932777982052,
        -0.7642198401250109,
        0.653838403387895,
        -2.047707042518925,
        -1.231030653282962,
        -0.7332637640738505,
        -0.06111390859422677,
        0.12285763756404691,
        0.03908804545617496,
        1.036287998155249,
        -2.2860844475897553,
        1.1134780352288354,
        -0.2657726718860448,
        -0.32916365898341654,
        1.16029928435956,
        0.4133888383019693,
        0.8405100804520287,
        0.686224733849805,
        -0.09679493713836759,
        0.979746979081177,
        -0.48533839082478314,
        1.2946397804640017,
        -1.1604909566763513,
        0.4446467304299918,
        0.2537582835217314,
        -2.0573673998778235,
        1.145258354428211,
        -0.3356579804337089,
        0.6812869453004201,
        -0.1542736758658684,
        0.060134169966863,
        -0.5737174880833694,
        1.5785093151475609,
        1.9716390431593236,
        1.3299386408401594,
        -0.1894465738567695,
        -0.4745479281199907,
        1.8882912431469059,
        0.11263197455042755,
        0.9467340789604197,
        0.48074602142826134,
        -1.6515024980434931,
        0.2818622356626942,
        -0.3097775623581926,
        0.09121671602327285,
        1.0034261834462965,
        -0.07075762393637286,
        -1.0971055340626024,
        2.1691307491399736,
        0.28501735375318876,
        2.198803915401714,
        0.1161481213063345,
        1.438717570932085,
        -0.4911087315803625,
        -0.6978024822595256,
        0.7676761682052063,
        0.8138133531666708,
        0.3712106596820898,
        -0.93846555870644,
        -0.1569009285162874,
        0.007645912377795774,
        -2.3423907921921696,
        -1.581456140984379,
        0.15749488733925424,
        -0.7354760885497558,
        -1.4304803288193224,
        -0.08288230256757591,
        0.9443490575152322,
        0.10383322625857355,
        0.4476360258207583,
        0.12406941111444994,
        1.2142048285971163,
        -0.48264393373226533,
        0.7590784098770765,
        -0.8379452288110386,
        1.8495081166605993,
        -1.2085831692158728,
        0.8836849309295873,
        -0.699318064247484,
        0.14201061234182094,
        -0.6279238205339077,
        -1.3893495064795043,
        -2.7098758941672187,
        0.42870123420215195,
        0.9794365253641713,
        -1.3907592643583742,
        -1.3360249624939915,
        2.2844494341496757,
        0.3236093435048357,
        0.2657087061877955,
        0.83723833789018,
        -0.009091558542292062,
        -0.5478375729305864,
        -0.7550930296413291,
        -0.6863710474046618,
        0.6558577500075172,
        0.9459783028191538,
        0.16032129352958782,
        -1.2639014238377981,
        -0.9302470166021868,
        -1.16053091621229,
        1.478652778039666,
        -0.21366680264798774,
        0.7435010766246689,
        0.7783118110509897,
        1.3444417359709084,
        -0.8838153421048599,
        0.2570694972415331,
        -0.1868074159225821,
        -1.3193972081244145,
        -0.8870339189157533,
        -1.0634905675113182,
        -0.14650714035980525,
        -1.4126306275425606,
        1.652987819338033,
        -0.16435110626870097,
        -0.039594046382638776,
        1.143926890959907,
        1.1747875408276585,
        0.3093136991538142,
        0.1416987908698599,
        -1.3552048419829577,
        0.19649143070048172,
        0.2589724733451729,
        0.36553727061501395,
        -0.7500353485446124,
        0.6702698018221632,
        0.9759873790903036,
        1.9271959598432202,
        0.3942379197770545,
        -0.4458316866969668,
        0.3699461935653813,
        -0.6649805343544817,
        -0.33229965904866193,
        1.0951706082879775,
        -0.6287283738810064,
        -2.5338529276630113,
        -1.2496531888637796,
        -0.4905836700532066,
        -0.450736742264166,
        0.6252396927967243,
        2.021209735485928,
        -1.1758249596354062,
        -1.4771490567300147,
        -1.1998362638127447,
        -0.497269371979134,
        0.446003729823565,
        0.60908121984813,
        1.0812548389512477,
        -1.1972443933786743,
        -0.8419816440613274,
        1.1021053992046541,
        -0.5980214607555094,
        1.2505951040772048,
        -0.14181948030740935,
        1.4258291492304087,
        0.9571029477307147,
        1.0142276683676525,
        -0.6520795149121238,
        0.6575260069922542,
        0.7876135308323392,
        -0.09850837778825515,
        1.5310612805449764,
        -1.4212377284803361,
        -0.18458270606520893,
        1.3206966651451628,
        -0.1734472415427836,
        -0.5586660588271206,
        -0.7811171380966196,
        0.5093996058915946,
        -0.6218351155620814,
        0.8188093561155013,
        0.1069358684324743,
        0.41383170802455166,
        0.8745783733146031,
        0.7310292663231934,
        -2.387933345810273,
        -0.5444067633201347,
        -2.214858421606431,
        -1.329450107629511,
        -0.3384294080716709
      ],
      [
        0.5652264885357472,
        0.2640765175300729,
        0.6715341478045896,
        -1.0981432489922216,
        -0.3546003334385243,
        -0.34862028047075616,
        1.3953918589310517,
        0.39776393561063544,
        -1.3505266232663125,
        -0.49415596011893337,
        0.5837246628651074,
        -0.018200558123581744,
        -0.5132179085091528,
        -0.8288815922473977,
        0.4486984026246711,
        -0.5091999189439612,
        -0.32757830237887825,
        -0.14946282619452447,
        0.47316919123582146,
        1.2995110371247593,
        -0.5100671495747924,
        0.8314380547835475,
        -0.5918566965739461,
        0.24263932310636596,
        -1.3559147367115862,
        0.12898307989031982,
        -1.6006722178178552,
        -0.47416696021833965,
        -1.505593164108506,
        0.5908024996016589,
        -0.516137077997415,
        0.7154090949715248,
        -1.1381545944777665,
        0.7781307444883483,
        -0.09606279852176121,
        -0.9941132306331301,
        -0.4934650365027974,
        0.6745192268983663,
        -1.7126493144527826,
        -0.7651231991631868,
        0.6457440046727557,
        0.322586448420851,
        0.45528343434251994,
        -0.11242962492457959,
        -1.6072177039370752,
        0.11578443912604351,
        -2.4302579452240867,
        0.4167519962195812,
        1.3232399594201127,
        -0.030578267911082216,
        1.3374836872893945,
        -0.6178379382763087,
        0.7474876927854708,
        -0.8052373567139536,
        1.621052214672083,
        1.1196231870406537,
        -0.7153179150046151,
        -2.27167104324237,
        -2.179806762518991,
        0.8199555544504246,
        0.6390998622681916,
        1.3147633785202333,
        -1.4051018406849378,
        -1.027073898495318,
        0.17514621009791378,
        0.887634587668039,
        -1.9787302282415526,
        1.1335156537081819,
        -0.6158370297762704,
        -0.8152497016008663,
        -1.050306177573507,
        0.5560494939971463,
        1.299128475536355,
        -0.27695768122945297,
        -0.7433184738173015,
        0.22541149486404413,
        -2.4560246358764544,
        -0.8817698262634969,
        0.08888213158850275,
        0.06507755572876137,
        -0.060230056541702985,
        0.4025414751646061,
        0.18764165602691,
        -1.1099593975549202,
        -0.4442787819166707,
        -0.6070095181869534,
        -0.17935769449114145,
        0.7926458882685594,
        -0.5981598745585351,
        -0.7225987457284165,
        1.158528747634974,
        -1.0508539711139253,
        1.74349954455161,
        -0.25602116546372755,
        -0.5273966147989853,
        -1.2633563773578755,
        1.1308002739683478,
        -1.2888592586586944,
        -0.9931686939166192,
        0.18932840085048255,
        -1.4096936251239542,
        -0.8762629332300874,
        -0.2604322096353347,
        -0.968227394248943,
        -1.3807019533515648,
        -1.4392695234874628,
        -0.37323006881924176,
        -1.1036054283927441,
        0.28933442994668646,
        0.0734214701829484,
        -0.690349998451643,
        -0.03944333867021343,
        0.436143442576509,
        -1.297472480003942,
        0.6671543489272472,
        -1.4137100247622099,
        -0.849651164164829,
        1.7288864228419119,
        0.2770802692448845,
        -0.29126782062404055,
        -1.6646534729125573,
        1.350248672567805,
        0.9904549692549848,
        0.04843466193249812,
        -0.9567666844260145,
        -0.22208061704292584,
        -0.850360052428407,
        -0.6762296874054136,
        -0.1189004757551075,
        0.41502190171854275,
        0.31074220465580915,
        -0.1664566533248227,
        0.13461154808951675,
        -0.8756338924658061,
        0.5028206639224152,
        2.216681785614841,
        -1.8795290443845591,
        -0.6321664014906886,
        1.7214103086060732,
        -1.3878393238593396,
        -0.3272732851515065,
        -0.07443849365025014,
        -0.25411952541673805,
        0.6474497955392176,
        -1.00657682716465,
        -0.2950861639402006,
        0.45247969861557646,
        0.5600091200107757,
        -0.052682333696199506,
        0.836628602833109,
        -0.24240090487291532,
        -0.9476519890137995,
        -1.0945282488217718,
        -0.7145459711316586,
        -0.49478040679569,
        0.2854263601502721,
        -0.10686549346622869,
        0.37759968102901303,
        2.772173807621727,
        0.669166662365924,
        -0.8748236869669541,
        0.27255840255358277,
        0.8465042924388387,
        -1.620181939315524,
        1.2367712879992536,
        0.24956641951751826,
        0.8373174621323415,
        1.3895656264180862,
        -0.27266643297574855,
        -0.2404759977256792,
        0.9209287937822014,
        0.6864036262521995,
        -0.8368340714833696,
        0.38847366438349124,
        0.6399889196553793,
        0.12969721610631846,
        0.882414206632855,
        -0.4221259718512414,
        2.1487539087748333,
        -2.7267097890656475,
        0.8566264062709302,
        0.11515281463114584,
        0.35644054365517314,
        -0.035703162338815146,
        -0.2820487521838531,
        0.11386307203869599,
        -0.8101755349156264,
        0.25043346915275283,
        -1.4272432934550456,
        -0.8119329812318621,
        -1.1085504576937248,
        -3.171511995865483,
        -0.8465629417971389,
        -0.7658264939520163,
        -1.068370423124617,
        -0.89389733299895,
        -1.6954942020401458,
        0.19744792716974027,
        -0.43366950457473546,
        -0.46758464175053893,
        -0.39292338145926664,
        0.206632743209453,
        -0.5495154205191571,
        0.36220037327156424,
        0.25737248387107686,
        -0.49774841445927853,
        -0.4198608601162988,
        -0.2337557247003398,
        -0.41882644689738546,
        -0.7125500525801256,
        1.414077482633931,
        0.11400113178683118,
        -1.174589284054462,
        1.764973444873021,
        1.2726343999304954,
        0.2601083622677144,
        0.06388331272054062,
        -0.049895549162192014,
        -1.2865822319385698,
        -0.7251166309723593,
        -0.5915584498325508,
        1.6788041703539753,
        0.7424972223576576,
        1.2136294675818013,
        0.490374681278738,
        0.45179190046053486,
        -1.180656900633791,
        -1.5038006002772286,
        0.5382839015344205,
        -0.8004546926449045,
        0.5358635025526736,
        0.03240463316143211,
        -0.8928975140963153,
        -0.18321264335908719,
        -1.797692937622969,
        -0.6715364589121048,
        -0.7675612341735141,
        2.3929939792339345,
        1.2533242488811265,
        1.3483397071476213,
        -0.3566854365085165,
        0.15691263716374784,
        -0.06989331519064391,
        0.2268351556007672,
        0.31102478502285535,
        -0.49168258843936924,
        0.18651032326050507,
        0.7071261041087678,
        1.3983101749190447,
        0.3080883470433936,
        -0.2613303143266092,
        -1.4779535420480983,
        1.3129257744049747,
        0.06696115598346683,
        0.1002692001856664,
        1.1995579964693737,
        -0.6678525355751238,
        -0.5194468276822057,
        0.5223331164223913,
        0.4639981505198909,
        -0.2517397952837489,
        -1.2339792084390333,
        -0.027680158672938784,
        0.6978757252114891,
        -0.8792828264375387,
        1.496401191115127,
        -0.7967723882130558,
        -1.6217075186008203,
        -1.1870929913935173,
        0.05333377766066232,
        -0.4551606167208753,
        -1.8884122796957872,
        0.2293907697759381,
        -0.15809562589871048,
        -0.2080338188547776,
        -0.12754119794988134,
        -2.1741777588041966,
        1.8121668571070964,
        2.0284945344939995,
        -0.013319685572064359,
        -0.4905740295320887,
        -0.43450627585777524,
        0.036840855118787326,
        -0.13546026857142224,
        -0.29295609488740093,
        -0.47632697926460443,
        -1.8216208261061642,
        0.4841373801098266,
        0.5877943811589931,
        0.14324740214731965,
        1.3854266263317105,
        -0.4290394951968303,
        -1.162032480933051,
        -2.007154306780345,
        0.0016281998387498572,
        -1.1177861737063355,
        -0.3384137014637501,
        0.3285958467846187,
        0.6471642464863293,
        -0.6245315343816665,
        0.9299334606566806,
        -0.30563974675423483,
        -0.9504886996887644,
        -1.021831876248659,
        -0.7341870304056837,
        -1.1804797578237487,
        -0.5833324128303666,
        0.21989074373228948,
        -0.6769371115316126,
        0.6660980201942536,
        -0.7566799433630662,
        -1.953746612487252,
        0.5096042392912131,
        -0.419514261121761,
        -0.6687860140542149,
        1.201168687736225,
        -0.4402168759371043,
        -2.189571708700756,
        -1.1225185143980594,
        0.7876406485107399,
        -1.0571392472372054,
        -2.320462677186984,
        0.8576941135589174,
        -0.00488777485734908,
        1.364309010254047,
        1.341901248989588,
        0.09563944141886452,
        -0.9427385658917071,
        -1.2983148022761786,
        0.5774079723051057,
        -1.0127219076600078,
        -0.9826430954509219,
        0.07837421579943024,
        1.1822516363202364,
        0.11292885748982222,
        -0.24532245155511379,
        0.39395857300452136,
        -1.4388840221832744,
        -0.6466601017627205,
        -0.6610773258236353,
        -0.49926976497482634,
        1.6522211331689098,
        0.11921362993973204,
        0.32472237232207707,
        -1.8568632847430377,
        -3.554752354250114,
        -2.678000671894161,
        1.0254745943013666,
        0.5321673924982687,
        -0.5625559292743193,
        -0.14019541596627028,
        -0.6268843517137235,
        0.7663582620978748,
        1.6279413211287372,
        -1.612152637944806,
        -0.35937544974329033,
        1.2261382623797246,
        -1.899349278827324,
        -0.32062706052000706,
        -0.3954672311639419,
        -0.6525288972920883,
        3.0832900680246493,
        -1.3278376147070636,
        0.08511064015380945,
        -0.2014429571671351,
        -0.34861701972611964,
        -0.5124758949130636,
        0.31105217142645103,
        -0.8576106948383914,
        -0.7913840688309961,
        -0.46902884323918614,
        -1.4322460286215366,
        1.205305183058527,
        -1.0965477647912454,
        0.542354703986238,
        0.6708710422347521,
        -1.6669630020448256,
        0.10478109028512775,
        0.6223676412548333,
        1.151657252449946,
        1.642789234221601,
        -1.5334547490179178,
        -1.840286863648037,
        1.2158829371962305,
        0.1433676875872538,
        -0.47995406497376153,
        -1.6490953541710207,
